{0.0730491,0.008288584,0.014475289,0.2228687,-0.12718908,0.11273847,-0.3209548,-0.0031829765,0.2996726,0.10414998,-0.34759322,-0.13642776,-0.22401878,0.07728791,0.26778424,0.0024734729,-0.22762132,-0.23526256,-0.16052379,0.24951354,-0.17266129,0.16239703,-0.13566473,-0.049533732,-0.27993482,0.2993473,-0.22866131,0.26280215,-0.02784581,0.16411728,-0.109373465,0.29703993,0.08649405,-0.07449992,0.3446247,0.2607831,-0.10699617,-0.077831954,0.13529679,0.4475561}, 
{-0.13288341,0.16069183,0.18452959,-0.20630285,-0.05005039,-0.26192966,-0.051217936,0.20215148,-0.356717,-0.307311,0.1060454,0.26386678,0.24236415,0.09437604,-0.3755126,-0.039045725,0.017152857,-0.14374533,-0.098513536,0.025828121,-0.13085783,-0.16535072,0.26457396,-0.26415998,-0.10619912,-0.17406347,0.38370293,-0.2175219,0.23605566,-0.23491661,-0.32845536,-0.12447103,-0.30925846,0.26415035,-0.232058,0.057734422,0.20242009,0.1905896,-0.04666995,-0.22294325}, 
{-0.17072031,0.19828124,0.12111575,-0.23269325,0.08799294,-0.2304167,0.04867235,0.05531628,-0.38772747,-0.3085302,0.056457683,0.027709948,0.24555299,0.08999873,-0.3552254,0.1158896,-0.01569308,-0.099232994,-0.059078217,-0.07978374,-0.035437666,-0.3120318,0.19610836,0.10160108,0.035452414,-0.17069507,0.45048672,-0.24186619,0.2448973,-0.30154994,-0.04577683,-0.10498158,-0.2288255,0.2819018,-0.36623356,-0.07865062,0.29282644,0.17188576,-0.24259946,-0.39909816}, 
{-0.13950498,0.29801655,-0.077805825,0.23736197,-0.9037025,0.30702478,-0.24883336,0.16188104,0.039854143,0.107331365,-0.20555179,-0.1458111,-0.51719093,1.0618162,0.29116717,-1.0363667,-0.8943921,-1.1056573,-1.1273221,0.18844141,-0.943218,0.101756506,0.31920522,-0.8002475,-0.34228987,0.4423622,-0.06943527,0.2826815,0.29019934,0.16226222,-0.11235899,0.19150667,0.46501526,-0.29327744,0.1279453,0.76405495,0.35435542,-0.6465458,0.22723913,0.1697928}, 
{0.26610667,-0.33348316,-0.2733382,0.39496073,-0.092375554,0.11503359,-0.26662382,-0.18563573,0.41556743,0.55968815,-0.4317678,-0.1610434,-0.19581631,-0.193112,0.20725839,0.108967714,-0.07304232,0.063474655,0.011707502,0.27794263,-0.039284855,0.46067044,-0.59304,0.081976436,-0.35487342,0.22960415,-0.53639334,0.54023,-0.2914939,0.5098203,0.21988693,0.30851293,0.25963518,-0.16678134,0.47684625,0.0029760534,-0.38304487,-0.21076477,0.35115927,0.5315356}, 
{0.25511315,-0.23636575,-0.34139016,0.34284243,-0.2423764,0.376646,-0.04889675,-0.26022565,0.1819507,0.29743767,-0.18920691,-0.2864818,-0.18741028,-0.08640303,0.19122805,0.012577752,-0.060387228,-0.105194554,-0.039376426,-0.029394215,-0.1933109,0.3926297,-0.35534218,-0.027389443,-0.027312545,0.109941624,-0.27932087,0.14392567,-0.18163037,0.36682448,0.22019123,0.14457163,0.23184955,-0.30224642,0.13324274,0.16350478,-0.22047177,-0.2710587,-0.016075222,0.26858732}, 
{-0.31754684,0.43690383,0.00985872,0.25079736,-0.7384026,0.20548977,-0.18121128,0.09393039,0.0472969,0.10064314,-0.2049054,-0.07225607,-0.4323142,0.8858723,0.31907845,-0.96243215,-0.64265436,-0.7733683,-0.7058445,0.19711177,-0.82285446,0.029315306,0.35174912,-0.67587864,-0.14461896,0.46334428,0.0103543475,0.2402922,0.082325935,0.081493996,-0.18018648,0.07999598,0.41114998,-0.33913416,0.16185264,0.6516748,0.18292573,-0.486387,0.2810654,0.16785976}, 
{0.47716415,-0.54648155,-0.38871995,0.29830012,0.042083208,0.27523357,-0.32516286,-0.50008494,0.45727786,0.5463,-0.3354813,-0.27363747,-0.22940032,-0.19614026,0.20181128,0.1958597,-0.008273692,0.009018415,0.14576153,0.05816125,0.08166136,0.44120032,-0.421858,0.11357681,-0.05567737,0.17292212,-0.4627006,0.23405626,-0.40500164,0.55439866,0.35906535,0.35494706,0.11844977,-0.27124426,0.47811222,0.05361207,-0.58112067,-0.03530064,0.185485,0.38945025}, 
{0.42587188,-0.35829994,-0.2257142,0.26471215,-0.15802512,0.25382188,-0.163126,-0.39804995,0.41390342,0.42996198,0.04838018,-0.26756617,-0.35264355,-0.07529354,0.30985102,0.010725429,-0.12379846,-0.022370344,-0.15285596,0.059910282,0.04043224,0.31616914,-0.39662266,0.00045770957,-0.006239545,0.2681706,-0.26590753,0.20347218,-0.42989054,0.32779768,0.4311057,0.1413929,0.35509196,-0.31837747,0.16968964,0.053823285,-0.1773252,-0.18556733,-0.00937895,0.17439859}, 
{-0.40484738,0.2730275,0.017415147,0.5440704,-0.74973536,0.7104061,-0.5457314,0.16185358,0.27901936,0.18026516,-0.29243216,-0.49493113,-0.93663377,0.85859483,0.82882977,-0.8365436,-0.8954664,-0.87484634,-0.9607676,0.54127973,-0.7615567,0.26373953,0.3354004,-0.8252311,-0.5626777,0.82022893,-0.15718679,0.5628377,0.2742353,0.24100468,-0.24711078,0.39806443,0.91976607,-0.69148797,0.45741567,0.7639238,0.36572182,-1.0219245,0.57553124,0.42115948}, 
{0.29845804,-0.09840348,-0.06160745,0.28775132,-0.21371381,0.39395937,-0.10694693,-0.1632657,0.38286757,0.30499846,-0.17295545,-0.25814307,-0.16643526,-0.018335026,0.32176468,-0.15698852,-0.12045905,-0.055756416,-0.08719919,0.07853202,-0.007710922,0.29835874,-0.38188538,-0.12747069,-0.13334294,0.17364243,-0.3485049,0.39275295,-0.30920637,0.45411283,0.1873485,0.3062474,0.14880836,-0.27641183,0.2671456,0.19019563,-0.24635668,-0.24952994,0.3291966,0.27710506}, 
{0.104287095,-0.03658591,-0.03285611,-0.007818058,-0.08498319,0.08671191,0.09739549,-0.10448343,0.09843246,0.10900002,-0.057748195,-0.015055351,-0.13240263,0.063535124,-0.06866473,0.16487394,0.04211949,-0.03832255,0.08121693,0.07024736,-0.074909605,0.0706233,-0.100660145,0.04170025,-0.042447485,0.09882037,-0.006241483,-0.07765592,-0.13033552,0.19181944,-0.01822772,0.097525515,-0.0338496,0.03226586,0.058362573,-0.045381695,-0.13898793,-0.09026197,-0.021764837,0.06364479}, 
{0.1399171,0.07675621,-0.08544548,-0.08861513,0.2940596,-0.28718033,0.09751658,-0.029427955,-0.060066078,-0.1348299,0.056620453,0.249336,0.163289,-0.26040274,-0.31299737,0.44452187,0.36662796,0.32996318,0.27311173,-0.14878747,0.47838432,-0.14926714,0.11394635,0.3502106,0.21612939,-0.18087786,0.06776043,-0.21211867,0.081837,-0.1679918,-0.06367176,-0.05952705,-0.33035168,0.25104058,-0.11022562,-0.32161924,-0.12322456,0.25110942,-0.26605463,-0.14564669}, 
{0.14009003,-0.15713313,-0.08624278,-0.006877472,0.16958453,0.045079704,0.3933553,-0.03035272,-0.22053221,-0.064361334,0.53510135,-0.013289676,0.2027763,-0.28390726,-0.06134031,0.24163741,0.12891954,0.13199577,0.23235206,-0.3710472,0.32008442,0.028411662,0.21383707,0.26840407,0.5284133,-0.051928204,0.19209577,-0.35231656,0.036770754,-0.007762606,0.2636747,-0.42099267,-0.012019999,-0.076477446,-0.5225705,-0.19105256,0.03559093,0.008081123,-0.49739245,-0.26561946}, 
{0.24823773,-0.31053752,-0.15951972,-0.0051094275,0.14907245,0.14405577,0.013401131,-0.23320895,0.059206042,0.057987843,0.119645834,-0.15649404,0.15755388,-0.16948703,-0.06819122,0.3329255,0.29359478,0.22501498,0.31692764,-0.18940544,0.15967916,-0.029931726,-0.21285641,0.28966108,0.1301573,-0.070029326,-0.033915684,-0.14906608,-0.2312901,0.10570652,0.14342394,-0.16252224,-0.13492556,-0.17162843,-0.12690489,-0.09970566,-0.077797905,0.10894867,-0.102878995,-0.08298886}, 
{0.20719461,-0.298027,-0.26673907,0.029490467,0.037755303,0.13000233,0.16448477,-0.13449113,0.10040242,0.031163765,0.22530095,-0.08371218,0.14452888,-0.2947489,0.06290872,0.12620184,0.09697693,0.2861019,0.14772472,-0.21060604,0.266171,0.21918155,-0.08180236,0.21512823,0.13940607,0.015061921,-0.08002271,-0.29861048,-0.27637458,0.11075508,0.34485695,-0.20406376,-0.041512225,-0.17565773,-0.22053376,-0.12986507,-0.22638702,-0.061693337,-0.16367897,-0.13386194}, 
{-0.051324867,0.058019716,0.031106777,-0.14652362,0.06664369,-0.032584805,0.075584084,0.09676301,-0.17271446,-0.12182903,0.08275966,0.10998525,-0.0046229456,0.02619423,-0.045725446,-0.09595816,-0.05307109,-0.00043625623,-0.12698627,0.14361201,0.04203264,-0.04098679,0.21724948,-0.06619454,-0.009577793,0.014656341,0.17715771,-0.28136313,0.1575687,-0.051858667,-0.1581683,-0.14058575,0.021326326,0.059980344,-0.073206134,0.12973393,0.22782491,0.19032285,0.058139794,-0.1226616}, 
{-0.12378976,0.1601795,0.022534702,0.033434086,-0.27377054,0.08520435,-0.25253624,0.1383564,0.20470197,0.04020962,-0.43818823,0.09059231,-0.17326757,0.115822084,0.1306763,-0.10853616,-0.034445472,-0.22454494,-0.012930465,0.3793512,-0.14270908,0.036483675,0.04869802,-0.18516369,-0.22042698,0.17256209,-0.08828152,0.35425532,0.176164,-0.060146753,-0.22451998,0.3458143,-0.09345265,0.12541594,0.4151028,0.26983613,0.08690251,0.057334356,0.24266231,0.34699246}, 
{-0.10399974,0.09929921,0.08495501,0.013435216,0.013841057,-0.04390765,0.109058395,0.014322266,-0.09350815,0.00082109164,-0.018461267,-0.08179817,0.060449734,-0.006308169,0.07781819,-0.058523364,0.05124981,-0.06576067,-0.01041992,-0.06984397,-0.0010655707,-0.03766638,0.1562111,-0.13991345,0.09431654,0.090221934,0.059233762,0.04426124,0.013119591,0.06324047,-0.104654714,0.012323423,0.07146146,-0.03261822,-0.10754603,0.07839401,-0.009840828,-0.08041283,-0.08948761,0.0053306874}, 
{0.051851276,0.058241908,-0.010799015,-0.016942356,0.09600131,-0.05200213,-0.14438362,0.0012464456,-0.02884376,0.106075466,0.09103564,0.004832615,0.17029199,0.08499224,0.014146534,0.050663758,0.16870761,0.017807867,0.13702,0.11637732,0.009159865,-0.027355058,-0.15452695,-0.10470509,-0.06836338,-0.11944013,-0.059038993,0.036423553,-0.06892426,0.1279026,0.104734845,0.060884915,-0.086076684,0.07066976,-0.10291216,-0.018554391,-0.018467974,-0.05364635,-0.07191214,0.07847596}, 
{0.1372113,-0.2622332,-0.11539626,-0.010243363,0.11552499,0.007668648,0.13719332,-0.23188818,0.106159024,0.22388615,-0.0055747796,-0.062340222,0.03360225,-0.111222446,0.06719882,0.011817129,0.03418819,-0.04090157,-0.053964473,-0.051601224,-0.05643341,0.02279836,-0.23269518,0.058145735,0.0033180225,0.10227857,-0.18943359,0.024731388,-0.28048044,0.064276434,0.0881799,-0.09626066,0.15576345,-0.11877454,0.007103025,-0.032702252,-0.24389623,-0.034968145,-0.071088105,0.08682753}, 
{-0.063175164,-0.03606371,-0.044623386,-0.079251386,-0.1355199,-0.07078655,-0.093119174,0.14312707,-0.12348949,0.058308676,0.010987987,0.0719138,0.035583448,0.11910977,-0.15541284,0.011795741,-0.07954664,0.047196325,0.028192371,0.09779394,-0.015040514,-0.10650008,-0.04098306,-0.17341518,0.040194638,0.0041447007,0.040495872,0.009646563,0.09451033,-0.104184546,0.030732106,-0.077688694,-0.110777356,-0.0070965085,-0.041406833,0.044426292,0.028540956,-0.0053935074,0.041474894,-0.12345558}, 
{-0.0014138503,-0.002851476,0.07878802,0.06662466,0.14395398,0.037886754,0.058562,-0.048264306,0.04436661,-0.0041253846,-0.10237535,-0.07686407,0.09845879,-0.17088783,0.012973488,0.015105469,0.11077479,0.051137038,-0.028759757,0.067859955,0.10467078,-0.060829595,-0.09041295,-0.027444225,0.0488255,-0.018465126,-0.14097661,-0.10621498,0.06942006,-0.11523134,0.05983013,0.11671316,-0.00095329725,0.11974841,0.031029783,0.028395826,-0.15218912,0.10126536,-0.051395196,0.023133788}, 
{0.31251168,-0.26475045,-0.30147398,0.16848977,-0.02711963,0.19147746,0.20746173,-0.12481059,0.22390865,0.0320972,0.0029308954,-0.15086168,0.067966744,-0.021084229,-0.0114007965,0.13373736,0.10536991,0.104957536,0.16213723,0.0019389957,-0.01809193,0.0675611,-0.16547647,0.13984294,0.13035764,0.14841458,-0.08125483,-0.006078257,-0.2856049,0.13892752,0.26291355,0.002981534,0.08781527,-0.17629436,-0.06410674,0.027411042,-0.32045737,-0.14376782,-0.18044819,0.023148803}, 
{0.03736957,-0.032716993,-0.13350351,0.015615974,0.10879137,-0.037995223,0.13270344,0.002758889,0.09693111,-0.06839646,0.13097987,-0.13000241,-0.073344,-0.111142464,-0.09606995,0.23494668,-0.10127896,0.02212057,-0.012941236,-0.21534997,0.12411278,-0.062484197,-0.071752004,0.0312623,0.09709265,-0.012937646,0.022556178,-0.14416353,-0.06753375,-0.06139768,0.2125522,-0.04324597,0.008611094,-0.036781676,-0.018181918,-0.045795023,-0.062323425,0.06916209,-0.08501211,0.061425358}, 
{-0.1799684,0.07097398,0.16225587,-0.25455248,0.17690592,-0.27761078,0.15112251,0.061050843,-0.0929869,-0.2696717,-0.04171495,0.25815466,0.076171085,-0.06204682,-0.10371047,-0.017896423,0.041162577,-0.05227238,0.10982639,0.08711705,-0.08236237,-0.11801121,-0.012174277,-0.082578786,-0.06805841,-0.21097943,0.21759261,-0.17436606,0.1716795,-0.19703166,-0.16080905,-0.05366687,-0.091735855,0.09687638,-0.07004134,-0.055791285,0.10860242,0.041007347,-0.101344936,0.016530829}, 
{-0.0633777,0.05098971,0.13974737,-0.08627317,-0.022252452,-0.1575457,-0.19985302,-0.06822727,-0.032837052,-0.10477331,-0.115475245,-0.0513458,0.1338409,0.025915684,0.038577944,-0.011445771,-0.07320116,0.0028489893,0.03815007,0.012302782,0.105646975,0.02918612,-0.16957608,-0.090121806,0.010045528,-0.06699272,-0.08053338,0.18857029,0.10779117,0.07393223,0.03320623,0.11678211,-0.19701898,0.07440282,0.197936,0.11400909,-0.17054978,0.0040793875,0.028794967,0.12623766}, 
{0.12589319,-0.3121189,-0.064287126,-0.017645003,0.11604527,-0.033052176,-0.0023332194,-0.075461105,0.109874666,0.11297127,0.056757543,-0.17351803,-0.09472195,-0.14435315,0.13227493,0.2370904,0.13019097,0.22111689,0.18635379,-0.08363495,0.28459138,0.04415431,-0.13626333,0.15576352,0.07197006,0.05707224,-0.15728875,-0.05111349,-0.19736575,0.23085311,0.062493574,-0.04500322,-0.039981853,-0.103855565,-0.05979837,-0.2274033,-0.11494931,-0.09034344,-0.18781187,0.16956647}, 
{0.12947401,-0.18326102,0.011997778,0.12685218,-0.081801094,0.042901065,-0.007549864,-0.009630724,0.1632479,0.081827044,-0.2255523,-0.23414896,-0.1899392,0.05140128,0.20718928,-0.043902557,0.015250299,0.0380085,-0.023225289,-0.026003933,0.03305852,0.2269222,-0.21031578,-0.04965227,0.05448367,0.1686973,-0.14956255,0.18356612,-0.10393659,0.2321175,0.0558704,0.1713137,0.27764627,-0.15985225,0.1909149,0.13344255,-0.2279536,-0.07217725,0.011174854,0.08447637}, 
{-0.11307909,0.020377615,-0.11592092,0.033228435,-0.03908398,-0.030300789,2.9803938e-05,-0.10132683,-0.038610402,-0.11160129,0.06472404,-0.039141737,0.13114466,-0.15942603,-0.09001787,0.032324217,0.050744742,0.020916007,0.12855577,-0.062161136,-0.0029502118,0.07828532,-0.0001081887,0.072585896,0.12579437,-0.037316408,0.11317249,-0.13525997,0.08771854,0.05621272,0.09981921,-0.09317005,-0.07770167,-0.06858514,-0.014618971,0.020156432,-0.10624344,0.010874953,0.063712336,0.05768735}, 
{-0.23397103,0.4129865,0.20324218,0.21243986,-0.61866647,0.22978476,-0.32814956,0.20117119,-0.016256968,-0.10256873,-0.29890487,0.03171814,-0.36696666,0.82472134,0.2098754,-0.79731727,-0.69225264,-0.77538127,-0.9102575,0.33064225,-0.8656617,0.1252581,0.28911322,-0.6772079,-0.30527136,0.45510054,-0.061895713,0.21804634,0.3625398,0.049134742,-0.19376321,0.23796359,0.17983781,-0.07770375,0.13499516,0.78793544,0.22829117,-0.51824665,0.33573171,0.3024157}, 
{-0.2175976,-0.050289202,0.19529964,0.13235101,-0.2579685,-0.09149736,-0.5475026,0.00155442,0.15579,0.013413623,-0.60071284,0.31737387,0.059029892,0.12061541,0.14869444,-0.16380768,0.016491685,-0.19869988,-0.1951318,0.46615666,-0.10868257,0.04245265,-0.2757229,-0.28535938,-0.5150258,0.116017014,-0.25911748,0.38119608,0.20418026,0.04917512,-0.20772292,0.6693253,-0.07707815,0.11902718,0.54853487,0.15384892,-0.2749783,-0.019014368,0.5100261,0.4028169}, 
{-0.109521665,0.25519708,0.16065922,-0.12645791,-0.12268663,-0.16310066,-0.10744414,0.054181796,0.02917809,-0.14522454,-0.12094731,0.13338354,-0.12512359,0.29028398,0.026131108,-0.31349713,-0.20009695,-0.3214652,-0.25430962,0.16998632,-0.19725904,0.015930105,0.117434196,-0.25938934,-0.2066687,-0.002704951,0.022924729,0.17982286,0.1343919,-0.14682937,-0.2159587,0.03780901,-0.051526833,0.022950772,0.014589553,0.1235052,0.07906348,-0.108661875,0.23291755,0.021016644}, 
{-0.18359818,0.39389592,-0.1576326,0.26262558,-0.73149806,0.34943455,-0.16706365,0.051541023,-0.05754029,0.1763029,-0.027865335,-0.1682958,-0.68154573,0.9967794,0.4818662,-1.0374131,-0.9864136,-1.0230544,-0.8812449,0.28384775,-0.9791487,0.21461095,0.30169672,-0.7114225,-0.10312464,0.5561671,-0.12456782,0.15858722,0.19340073,0.14592288,-0.108755,0.04076262,0.5548905,-0.5368386,0.2713599,0.8937487,0.27369794,-0.83072644,0.25146648,0.1814605}, 
{0.44060525,-0.61638385,-0.29148614,0.37204963,0.10101489,0.41909552,-0.1175182,-0.451236,0.42201284,0.61315286,-0.27686694,-0.3726354,-0.07982327,-0.15061007,0.27175367,0.14344536,0.0758881,0.21061479,0.00757151,0.2288409,0.17490697,0.5512447,-0.46015403,0.07681513,-0.12691896,0.19514835,-0.47131968,0.4060417,-0.399018,0.6129126,0.52518654,0.23240393,0.18144764,-0.39233792,0.3177959,-0.108593516,-0.4979681,-0.21623418,0.1595963,0.35790798}, 
{0.509048,-0.4474495,-0.5518257,0.47256333,-0.10080867,0.2691129,-0.030920701,-0.44504517,0.22612303,0.35525528,-0.024810065,-0.36461717,-0.3079953,-0.11030089,0.22790235,0.0268323,-0.17848575,0.025505243,0.0014822158,-0.02416821,-0.052035987,0.5213416,-0.35380566,0.12294098,0.2713196,0.14261056,-0.3647696,0.0036254947,-0.5183613,0.40545174,0.45441577,-0.1238268,0.327242,-0.4921198,0.06679597,0.028447393,-0.4421404,-0.22723326,-0.16472736,0.20494948}, 
{-0.33327496,0.5110368,0.20456998,0.2563631,-0.9676664,0.26579234,-0.4849391,0.15278804,0.14579622,0.016359443,-0.3905654,0.001209267,-0.58875847,1.0622168,0.44431138,-1.0843699,-0.89171576,-1.04167,-1.0569953,0.47565827,-1.1008098,-0.013279001,0.21742082,-0.8689601,-0.40924153,0.5242552,-0.09820838,0.38272902,0.30039808,0.054275803,-0.22156039,0.2486861,0.32591465,-0.154119,0.3255034,0.9336318,0.33054632,-0.62732387,0.26340407,0.15202008}, 
{0.14857684,-0.18957245,0.12926246,0.17707448,-0.13685721,0.114147626,-0.46564886,0.087459214,0.26745427,0.3592426,-0.5984773,0.12945396,-0.044073015,0.14422762,0.16972908,-0.0261549,-0.09020955,-0.20908278,-0.0025463202,0.5015946,-0.091283455,0.042648215,-0.22891115,-0.23166732,-0.40587202,0.11043527,-0.50121176,0.38977534,-0.097978175,0.18142147,0.003203755,0.5499414,0.08555421,-0.083070286,0.5242766,0.04293522,-0.32208857,-0.14451227,0.40730473,0.50079954}, 
{-0.0032649385,-0.04303048,0.021743003,0.19741817,-0.14300357,0.04908826,-0.13118336,-0.01915606,0.23975375,0.053538747,-0.26948407,-0.15431085,-0.27204055,0.14343499,0.22447966,-0.13662988,-0.22054337,-0.22946765,-0.12274892,0.23933755,-0.18705873,0.120320976,-0.05910294,-0.18150532,-0.103352815,0.12247141,-0.2281688,0.2518481,0.06932614,0.062043153,0.10030631,0.24228391,0.21262877,-0.14127073,0.21916966,0.20376545,-0.022206014,-0.18525518,0.15657789,0.14786573}, 
{-0.07381794,0.033547353,-0.24452987,0.25541297,-0.65238345,0.4000718,-0.091869764,-0.1710932,-0.0006925877,0.058428597,0.009938966,-0.20692363,-0.39620712,0.66059166,0.36041746,-0.62052387,-0.71469253,-0.69628644,-0.6069294,0.08450102,-0.5575421,0.3284072,0.18496943,-0.26743388,-0.02271375,0.38957742,0.12065776,0.02950063,-0.053484127,0.043912258,0.051890984,-0.18799482,0.49825135,-0.38971013,0.10066032,0.45297554,0.346925,-0.63790184,-0.091829106,0.07406307}, 
{0.4987715,-0.49747795,-0.30706453,0.098788075,0.09394585,0.20742427,0.16847926,-0.45353094,0.18727696,0.3423754,0.2029267,-0.2702769,-0.10910047,-0.18927161,0.1239202,0.17171131,0.12573475,0.103097074,0.063472904,-0.22050993,0.1142503,0.21178839,-0.42376837,0.32808495,0.30277422,-0.051302865,-0.2916308,-0.089905016,-0.4361585,0.3867026,0.41513628,-0.08436941,0.119272776,-0.2033921,-0.2102466,-0.12047874,-0.26288295,-0.156601,-0.20874952,-0.05592111}, 
{0.55390227,-0.4821895,-0.56660944,0.46220502,-0.029775865,0.37346685,0.2944108,-0.5848684,0.4447769,0.34865186,0.0692593,-0.5900448,-0.21018922,-0.09723035,0.3006759,0.1790411,-0.07733787,0.22907642,-0.035246983,-0.23732182,0.1210708,0.49644187,-0.39339778,0.3766528,0.47010365,0.28088173,-0.22981925,-0.041171733,-0.5027133,0.45036724,0.70182306,-0.30642185,0.2836408,-0.43059006,0.0036487065,-0.21885495,-0.4878665,-0.2313844,-0.26786637,0.09515214}, 
{-0.036911964,0.09783292,0.08256673,-0.20345858,0.024941316,-0.15463956,0.14192201,0.13315068,-0.24656637,-0.18379349,0.26703057,0.008550489,0.052603237,0.0023305346,-0.14077546,-0.07509662,-0.058522742,0.080502465,-0.027422035,-0.19970699,-0.007201665,-0.1478755,0.019007057,-0.009179088,-0.012193288,-0.061590713,0.12750225,-0.13368782,-0.024389394,-0.27575362,0.01211435,-0.2109862,-0.14020246,0.19128042,-0.2180147,0.0530152,0.04342143,0.20159154,0.030321661,-0.32345885}, 
{0.058012214,-0.03032851,-0.03709017,-0.24104767,0.07853415,-0.27634087,0.1799366,-0.010646944,-0.1618424,-0.10981161,0.26272342,0.0066235224,0.11099322,-0.08520526,-0.17225458,0.038233176,0.1470734,0.19660325,0.0041468316,-0.2360491,0.044420872,-0.16216229,0.11534576,-0.03330077,0.020747522,-0.0817978,0.23722568,-0.23389745,-0.04369663,-0.170001,-0.11618636,-0.14048088,-0.2226987,0.0969375,-0.27140903,-0.03720984,0.055545487,0.1527594,-0.021647219,-0.3318748}, 
{0.01812674,0.0772221,0.10918789,-0.33230966,0.07842534,-0.238174,0.1692418,0.11850624,-0.17025307,-0.20356213,0.088178165,0.12079165,0.048262116,-0.035684694,-0.15135758,-0.058091044,0.028902605,-0.032100488,0.15823948,-0.14252062,0.14454596,-0.24490845,0.16960262,0.1232813,0.10169344,-0.14371043,0.2903976,-0.4167758,-0.00069872406,-0.17738618,-0.16655558,-0.091132626,-0.22469757,0.19009955,-0.25070018,-0.031646352,0.049234267,0.22705647,-0.08594492,-0.28008133}, 
{-0.13638541,-0.031944036,0.10272312,0.0537306,-0.09311604,-0.1518743,-0.2136787,0.022779163,-0.1272236,-0.01812043,-0.14523706,0.00043849865,0.10039971,0.07604952,0.052196886,-0.003641359,-0.08645113,-0.004302884,-0.16934057,0.07953829,-0.047749992,-0.02853769,-0.11878227,-0.1963324,-0.16506885,-0.0062621366,0.084413484,0.07113612,0.14830191,-0.037457313,-0.06681008,0.18052647,-0.1579528,0.11241379,0.17716095,0.1779614,0.039544906,0.0070990985,0.14634468,0.1513453}, 
{-0.15676384,0.080189876,0.16811207,-0.048877586,-0.18198255,-0.06276566,-0.23090151,0.09872933,-0.063231476,-0.25524655,-0.05020899,0.2467616,0.10737,0.2316439,-0.0681171,-0.19937596,-0.07799905,-0.200681,-0.011924499,0.1015529,-0.21186051,-0.14027934,0.008950841,-0.19227572,-0.09775252,-0.04745026,0.033663474,-0.07619797,0.28272867,-0.10137559,-0.16286676,-0.0009298021,-0.22293723,0.10200557,-0.024967384,0.09415625,0.110221244,0.07863466,0.09164219,0.12171624}, 
{-0.05908449,-0.0063898405,0.1856223,0.061519504,-0.0046646483,-0.08528033,-0.16829127,-0.015607012,0.05647572,-0.007477209,-0.12506811,0.07090029,-0.1624244,0.07215336,-0.042532284,-0.21185024,-0.15347409,-0.07070808,0.0011170609,0.0879179,-0.15433097,-0.13312584,-0.109916344,-0.18324947,-0.017534165,0.0460591,-0.012226298,0.18464796,-0.028421603,0.08477242,-0.040042177,0.12859064,0.1220969,-0.007938772,0.01392219,-0.0109006725,0.0964719,-0.14053401,0.16402763,0.0070807864}, 
{0.02959676,-0.060253434,0.060940657,-0.11001565,0.06506618,-0.101647384,-0.03488998,0.15458678,-0.048445903,-0.055136673,0.040784545,-0.08991428,-0.089105636,0.14412233,-0.15345685,-0.14029129,-0.10720108,0.032350924,-0.0003320435,0.022258332,-0.11718684,-0.052305963,0.14970225,-0.08776863,0.006576803,-0.10928277,0.099584065,-0.0452859,0.052816868,-0.14666338,0.07749604,-0.11955873,-0.040314343,0.07307932,0.017088408,0.12552567,0.10238882,0.11065341,-0.08691402,0.015982877}, 
{0.0714186,-0.25977975,-0.16087091,-0.13475841,0.07591159,0.006236008,0.063905515,-0.020853722,0.11568408,0.09098803,-0.05592427,-0.023734353,0.18801837,-0.19474633,-0.060740426,0.22871982,0.053399988,0.21777853,0.16663451,0.022723455,0.1502324,0.008978416,-0.099069916,0.051177714,0.20442012,-0.1793812,-0.026087323,-0.04083512,-0.21915007,-0.021301718,0.0050890706,0.036075365,-0.028923921,0.046934806,-0.050780788,-0.13012339,-0.23240496,0.18537466,-0.06617323,-0.021337446}, 
{0.10252461,-0.08892582,-0.25858194,-0.029187532,0.06601217,0.11572517,0.091527246,-0.10074739,0.1361886,0.16310589,0.20662849,-0.1680354,0.050756767,-0.053529263,-0.006005928,0.09099912,0.077376604,0.21307307,-0.041513328,-0.17946777,0.0959962,0.14442807,-0.19134612,0.28042725,0.13922118,-0.06311698,-0.07417529,-0.1295305,-0.28201857,0.12987788,0.2847905,-0.18850523,0.10660708,0.017375506,-0.024623305,-0.13075192,-0.19503784,-0.0019717114,-0.13042836,-0.09038996}, 
{-0.103448994,0.0722486,0.0714627,0.090467826,-0.12574166,0.033473022,-0.11512453,0.13110101,-0.080459535,0.07630425,-0.118083395,0.1179098,0.04026222,0.07814254,-0.06566777,-0.09867692,-0.16581781,-0.0042820103,0.051947057,0.20076776,-0.20657125,0.056446966,0.1264922,-0.01815753,-0.14538899,0.005310563,0.056073487,0.079786256,0.15297396,-0.123667724,-0.13147715,0.026601123,-0.03705906,0.15356521,0.023740597,-0.055072337,0.039218295,0.091646925,0.069758154,0.045191016}, 
{-0.22573137,0.12759532,0.2200544,-0.07000218,-0.10519383,-0.06631584,0.072155125,0.21798293,-0.090766124,-0.23253071,0.060415167,0.21300928,0.019498909,-0.061936297,-0.19316745,0.099574976,-0.05265265,-0.025441743,-0.01195284,0.14182094,-0.024418058,-0.14377338,-0.031448904,-0.042764712,-0.12671237,-0.07911468,-0.027850455,-0.096516415,0.16671976,-0.22108468,-0.06945847,0.1569662,-0.22741967,0.10723603,0.047365922,-0.04079096,0.0070371823,0.23051408,-0.046946205,-0.082297504}, 
{0.13543825,-0.15840316,-0.060784865,0.18432856,-0.22015844,0.12110624,-0.027425636,-0.06723634,0.21971035,0.07765541,-0.06703219,-0.18730922,-0.1346685,0.006454936,0.04926777,0.022529474,-0.100508295,-0.035249177,-0.21607882,-0.028518751,-0.106668964,0.01412659,-0.22197625,0.048113044,-0.12350836,0.1069297,-0.18971004,0.1506192,-0.07792667,0.20333888,0.1318407,-0.03381692,-0.038583554,-0.089048,0.19043344,0.0076255007,0.014456137,-0.0025840173,0.13927612,0.012656322}, 
{-0.002292063,-0.023733808,-0.054944623,0.08229329,-0.037402317,-0.10797731,0.09998357,-0.04979068,0.03195022,-0.100091435,0.06281587,0.1169707,-0.069977716,0.019029327,0.09498635,0.00047469788,-0.07812833,-0.14450075,0.021478446,-0.07823607,-0.13440199,0.09401244,0.08977327,-0.17829262,-0.08028896,0.14307413,0.17591752,0.032463465,0.046233073,-0.0104844775,0.034114275,-0.1593209,-0.023854716,-0.020655675,-0.10609405,0.19820212,-0.04068678,0.02145678,0.123705275,-0.12860529}, 
{0.3761373,-0.34927794,-0.31069994,0.05166264,0.13255851,0.06913052,0.16488475,-0.2290115,0.08980679,0.012799776,0.30338857,-0.08725274,0.062755436,-0.1891209,-0.046422396,0.16280842,0.22759126,0.29367152,0.1468827,-0.3536724,0.35526314,0.05427749,-0.2209693,0.29896456,0.19038014,-0.11294336,-0.16465953,-0.088059306,-0.28284895,0.07517439,0.39988676,-0.13387969,-0.0032936507,-0.1633343,-0.22368455,-0.17326657,-0.20678288,-0.057083134,-0.2806857,-0.15212505}, 
{0.29338866,-0.20613606,-0.3116279,0.006834945,0.088578604,0.11862821,0.19766526,-0.2965681,-0.09911772,0.04664589,0.20180526,-0.09682276,-0.0066710464,-0.2698698,-0.13145603,0.13186818,0.029188754,0.15167572,0.13574784,-0.3180265,0.15049882,0.028706772,-0.048423037,0.32894966,0.17800272,-0.15389514,-0.014265545,-0.16716194,-0.20686358,0.04431532,0.15980123,-0.17683832,-0.1542049,-0.07633748,-0.13558634,-0.11710208,-0.25607887,-0.047729805,-0.18551576,-0.014300863}, 
{-0.04216646,-0.052442074,0.08967048,-0.2990313,0.13559909,-0.14154965,0.26626316,-0.02930565,-0.2533984,-0.33065745,0.15790258,-0.036663078,0.19251893,-0.02335749,-0.28665158,0.022301255,0.14893386,0.07153336,0.18210407,-0.22305769,0.1526315,-0.15835612,0.097878076,0.1669507,0.17934428,-0.28333926,0.26407117,-0.43182644,0.0065893857,-0.278554,-0.1392346,-0.23032472,-0.1874159,0.033191923,-0.28405917,-0.027973244,-0.007207745,0.071378425,-0.19047017,-0.23020913}, 
{0.028354866,0.031079551,0.16994533,-0.30985847,0.076861754,-0.21570528,0.09276962,0.042469792,-0.33650872,-0.13197057,0.17044444,0.05221556,0.18218471,0.038944464,-0.26168394,0.1522711,0.16235778,-0.06238214,-0.041424997,-0.14643714,0.0807956,-0.27842426,0.20590982,-0.053600673,0.18830796,-0.2721339,0.38825864,-0.18176757,0.0021108,-0.081927426,-0.17850499,-0.055388093,-0.12255292,0.20047492,-0.25994152,-0.17133482,0.09038436,0.20607325,-0.13910255,-0.31154102}, 
{-0.12927331,-0.020909896,-0.078416005,-0.31729555,0.10035014,-0.0078559285,0.12678869,0.08235304,-0.13977589,-0.19561169,0.32621774,0.042318482,0.16249043,-0.08469102,-0.28275883,0.08622786,0.17697525,0.040044975,-0.025000783,-0.20036405,-0.036400925,-0.15218681,0.1664091,0.12634614,0.26364505,-0.2651217,0.234933,-0.34420174,0.1330203,-0.1993256,0.057278823,-0.27233002,-0.06720196,0.23074515,-0.38905892,-0.17186306,0.1579511,0.058626916,-0.15980363,-0.37115097}, 

 end 
{-0.31857643,-0.004833026,0.2552108,-0.24587245}, 
{0.28034815,-0.121860474,-0.3277507,0.23507029}, 
{0.27327928,0.11206055,-0.2802402,0.11411918}, 
{-0.83748466,-0.057213813,0.17261457,0.15721446}, 
{0.28240347,0.030330671,-0.052399993,-0.49547973}, 
{-0.7945968,-0.17024764,0.2172164,0.18520041}, 
{0.35396942,-0.1040025,-0.009772552,-0.29614577}, 
{0.34880427,0.0637297,-0.21924841,0.16814364}, 
{-0.60672,0.10482915,0.19890285,0.11635759}, 
{-0.6303829,0.041362975,0.20373686,0.0879486}, 
{0.3922107,-0.13510248,-0.022504726,-0.24695978}, 
{0.33324447,0.19363257,-0.22963144,0.019995531}, 
{0.33680007,0.111398436,-0.08827887,-0.33990258}, 
{-0.58215517,-0.3144171,-0.24586786,0.5151513}, 
{-0.911964,-0.08251589,0.14231862,0.2710114}, 
{0.07095922,0.0676758,0.031041492,-0.5501102}, 
{0.33951828,0.16934615,0.014259414,-0.49242458}, 
{0.28608182,0.14823915,0.11862205,-0.6026232}, 
{0.2747194,0.20528421,0.049334962,-0.5781488}, 
{-0.8488553,0.015430022,-0.13471986,0.21307136}, 
{0.30854896,0.20471133,0.14511502,-0.4211917}, 
{-0.6532191,-0.0649322,0.17138949,0.07318189}, 
{0.47549435,-0.17863928,-0.25459167,0.19223243}, 
{0.35688102,-0.0046072,0.16172302,-0.5946907}, 
{0.33194378,-0.18019064,0.05191581,-0.40890878}, 
{-0.87708443,-0.15879652,-0.009169132,0.18398169}, 
{0.55198187,-0.18283336,-0.26456052,-0.088166185}, 
{-0.818412,0.0080135735,-0.023921188,0.1483844}, 
{0.3320337,-0.023490973,-0.3496799,0.22082454}, 
{-0.7436066,-0.036264654,0.15636371,0.008012817}, 
{-0.45571318,-0.08911288,0.26447973,-0.19477373}, 
{-0.780136,0.17778517,-0.073242396,0.16585375}, 
{-0.8536182,-0.15761133,0.20021355,0.33471432}, 
{0.33332995,0.14848208,-0.21462558,-0.15014032}, 
{-0.82530916,0.13473663,0.035684634,0.2346121}, 
{-1.0033103,-0.22797386,-0.16377053,0.3436641}, 
{0.39048654,-0.09336358,-0.16242245,0.22125514}, 
{0.33725142,0.19513094,-0.04213844,-0.31160197}, 
{-0.6206981,0.15344164,0.0063169724,0.30594164}, 
{-0.71790045,-0.0035739741,0.0040228823,0.089822926}, 
